{
    "hidden_1": {
        "biasis": {
            "array": [
                -0.6731799508831208,
                0.748636165973509,
                0.2051257867493962,
                0.42442073435468247,
                0.011225405788923207,
                0.09240782131821568,
                -0.24299155085946567,
                0.7284855397102734,
                0.9740644292563978,
                -0.5465106812610062,
                -0.01586067820761939,
                -0.11557805397081031,
                -0.33686884818773877,
                -0.06897453870404127,
                -0.07419411484310454,
                -0.28696253087999607,
                0.28983384174670695,
                0.120822108038469,
                -0.03543532077734904,
                -0.1355909263727934,
                0.8453846223138417,
                0.17610767421060552,
                -0.7693689589548451,
                -0.6260226760828264,
                0.6455912965748161,
                0.06582777195052623,
                -0.7717423695629326,
                0.47589355751545337,
                -0.3221852181926457,
                0.35320704527386515,
                -0.4900243660422789,
                -0.14537396843025976,
                -0.1690363400338253,
                0.7339709654138884,
                -0.6021154104671809,
                1.0464424739816973,
                -0.04695975453674283,
                0.12112653239678713,
                0.607765516093421,
                -0.18464870063901465,
                0.46647416466721336,
                -0.4074328323781146,
                0.6519622175898454,
                -0.8331677308406477,
                0.5229877783900423,
                -0.3279467028152076,
                0.1027113145582775,
                -0.28646460071002655,
                1.0399694346167452,
                -0.6812405552157577,
                0.4465480854034447,
                0.8481611467826093,
                0.71800172198595,
                0.895827362511741,
                -0.8822447162545077,
                0.3557761667633256,
                0.06786238203352701,
                -0.7847605950772161,
                -0.24287327972114697,
                0.6982169069567955,
                0.27881497562493085,
                0.0881625740201804,
                -0.3000073215935351,
                -0.8274662025629442,
                -0.31587142032925797,
                0.0989343291377079,
                -0.8397845625444808,
                0.5301764200702052,
                -0.7574199447509238,
                0.8697606940567429,
                -0.7128440326426392,
                0.7021369527411716,
                -0.5417546583896302,
                -0.9298683257593695,
                -0.7319686636332835,
                0.9496765484016567,
                -0.2957622247586913,
                0.5089206531183653,
                -0.42485392503223846,
                -0.3646568266758153,
                0.5809074249892294,
                -0.6995524088082252,
                -0.39749780030482734,
                0.2958633898889371,
                -0.7524676710079374,
                -0.507089141561886,
                -0.4930133347378614,
                0.15151566954406084,
                -0.21361650710351784,
                0.230410145587666,
                0.07981698395115452,
                -0.8750218054802105,
                -0.5211228356081369,
                0.6270047584259746,
                -0.755092415037171,
                0.03590525644048741,
                -0.1223534848794697,
                -0.52387704064238,
                -0.2914236398256698,
                0.08473332952120764,
                -0.9061971533892261,
                0.13218837783426232,
                -0.10185775679499288,
                -0.37946565375804286,
                0.21370050387901143,
                -0.0177502303685186,
                -0.36881244019799314,
                0.9012122591670015,
                -0.6423365360055796,
                0.4449452375144534,
                -0.37494677100215695,
                0.981274985810587,
                0.4769353435789653,
                0.306173985595165,
                0.2352458645677411,
                0.9323669627257821,
                0.6759177924652867,
                0.9913889425379848,
                0.03391155303105628,
                -0.43031571846657624,
                0.2002311725798483,
                -0.7596984650932117,
                -0.2903265602100991,
                0.44893803149244993,
                0.9536341507063925,
                -0.24328910475606025,
                -0.1943965319695164,
                -0.09353846936244285
            ],
            "cols": 128,
            "rows": 1
        },
        "weights": {
            "array": [
                0.8051015659259173,
                -0.5630644092164303,
                -0.018641997603067173,
                -0.8816146524071762,
                0.3729259303644885,
                -0.2525965716934747,
                0.769180597629948,
                0.6320958610773533,
                -0.8256348277561529,
                0.808204674072659,
                0.46301429973124253,
                0.10120570897180858,
                0.9136009020328526,
                -0.5058505681836282,
                0.18114507532731872,
                0.936464363679506,
                0.7758723282142879,
                -0.03932588875262344,
                -0.0199692347179955,
                0.41191677162978646,
                0.08228588340910425,
                -0.2910106569952381,
                0.8348684999322837,
                0.1458623442546756,
                -0.921950130687072,
                0.8649855432403206,
                0.28761955876258183,
                0.5519506975784669,
                0.6579988001184531,
                -0.7781296939487241,
                -0.5958029504845863,
                0.4631003651130481,
                -0.34119410223383184,
                0.3855550519123465,
                0.5814857136371945,
                -0.9682681728006658,
                -0.8670415207124509,
                0.35066631033581985,
                0.6638276882766876,
                -0.6926763484686037,
                0.15887098347715622,
                0.12684198707660754,
                0.40852936050320476,
                0.07247188551000883,
                0.6209914188929793,
                -0.4103255651007991,
                0.00893624825819228,
                0.39686374710726735,
                0.5503485470779002,
                0.9889670135401967,
                -0.19121948219426887,
                -0.3673655704443183,
                -0.302043644386364,
                -0.3563509831933076,
                0.7784967738103572,
                -0.22399377507343599,
                -0.49136544088430956,
                0.06611633164161645,
                -0.6720430784262917,
                -0.8333666416971789,
                0.28798663769289234,
                -0.26784602891087816,
                0.6297337243471917,
                0.9467925354590605,
                -0.8822909779298543,
                0.21121943705306356,
                0.9785243626583946,
                -0.7493324986423051,
                -0.43811425354243916,
                0.6423520500037596,
                -0.4420088471109088,
                0.7207567308660394,
                -0.23080596385095542,
                0.9665205143236184,
                -0.20677138455527433,
                -0.6098145449579762,
                -0.44380505170850315,
                0.802164863702918,
                0.7870492021492912,
                -0.8934565055619257,
                0.7911318772431146,
                -0.40417028097630026,
                -0.26082207600624396,
                -0.5109117680745721,
                0.23947873583039203,
                -0.48232530312720934,
                0.26509445778331453,
                0.7481132949460825,
                0.5837910285144072,
                0.5930513793570229,
                0.9147466532489037,
                -0.12822233379270054,
                -0.6747946495538553,
                0.5444803766647728,
                -0.18142979926496272,
                -0.5570856274837095,
                -0.24430018721348612,
                -0.202905436606568,
                -0.30641812519469214,
                0.3175855601753972,
                -0.5605533875341311,
                0.25157302769439904,
                0.03834229011011425,
                0.20864064954623607,
                0.21809354108669488,
                0.8315709055548399,
                0.5988261045882599,
                0.7742884903095144,
                0.6337357683264351,
                0.38587530580622853,
                0.8808319847475887,
                0.4248676446382271,
                0.9817050248299284,
                -0.37999009125865535,
                0.9139558774949776,
                0.22118375972899784,
                0.13768460561413542,
                0.17905033434696982,
                -0.030702946256242147,
                -0.27852436587145757,
                -0.22789828722732997,
                -0.11595629393866114,
                0.5932533003358418,
                0.09730706321881488,
                -0.5714759172738884,
                -0.5881764998604434,
                0.5402214366664277,
                0.18422389551262564,
                0.20891806353298858,
                -0.7661966894595869,
                -0.49819054524329986,
                0.6483646769301801,
                0.4853763382348122,
                0.5401517448668143,
                -0.14299467445490632,
                -0.2965301206784928,
                0.3717226494903316,
                -0.5441685707979689,
                -0.5222416313003011,
                0.005458417816766703,
                0.8417067350082597,
                -0.6414096474840351,
                -0.5696739384763287,
                0.8234117589068655,
                -0.02139973874269041,
                -0.6557180619126736,
                0.04459551770454073,
                -0.8837151331285551,
                0.5233322724342961,
                -0.9861074294830241,
                -0.16223949900001267,
                -0.7045660147930337,
                -0.10206372342168524,
                -0.5689861995954933,
                0.39274104842578117,
                0.3264603593044264,
                -0.15716269945593675,
                -0.06703751583911366,
                -0.48931574518294807,
                -0.9482446359229482,
                0.16676579470129949,
                0.012493709573752065,
                0.7001200410072319,
                -0.3478578670638883,
                -0.44735454555943355,
                -0.442874634378997,
                0.35561201225761874,
                0.924368103930898,
                0.012956794823034024,
                0.8333703809573176,
                -0.0701734791836578,
                -0.14533647110002879,
                -0.8080392674580399,
                0.36015258327133615,
                -0.321924713124486,
                0.17056099473059216,
                0.7044345213586625,
                0.7226708045800547,
                0.28684586160203707,
                0.22776679379295883,
                0.7365633750970304,
                -0.8753936383292981,
                0.5232007789999251,
                -0.3655003492559774,
                -0.4443798379247914,
                -0.0840581735056165,
                0.9609600109797716,
                0.39845746261927184,
                0.8489043115865924,
                -0.528355735134499,
                0.4502128266963237,
                0.01567010535656954,
                0.4841379744392531,
                0.150332866772233,
                0.6678122382926812,
                -0.963216572051503,
                0.7074582323932359,
                0.023424249618977377,
                0.9611515328107176,
                -0.2795849737150524,
                -0.14320537035502745,
                -0.10902194730426273,
                0.5750785551849187,
                0.048755363118255124,
                -0.7488693649642493,
                -0.7468461588708899,
                -0.7806836430824751,
                0.9555651573257358,
                0.9758246457091648,
                0.506162218519562,
                0.18333195018737203,
                0.7123880198748727,
                0.630768580190264,
                -0.29346727174402554,
                -0.6531123293811048,
                -0.81361125866585,
                0.6224745547503581,
                -0.6921523193326556,
                0.5848462039534217,
                0.4713788654056279,
                -0.2205080544671547,
                0.03505903064974536,
                -0.5129510292378026,
                -0.7363700809592242,
                -0.8146081035093442,
                -0.845138791876444,
                -0.6995866520794046,
                0.8928501298152143,
                0.17828545867385603,
                -0.7384351202000097,
                -0.3867348448311607,
                -0.964919912612494,
                0.1525429324957277,
                -0.8116562896462419,
                0.08383545050576124,
                0.403673568462801,
                -0.5585024485171318,
                0.30315180742328596,
                0.3592387248572142,
                -0.5826778028079671,
                -0.1906859749884745,
                -0.45742932588673635,
                -0.870289783864417,
                -0.5599173957295331,
                0.24910340236923822,
                -0.5234021132455218,
                -0.3735286543953832,
                -0.1284220438117264,
                -0.2155544325781774,
                -0.7886824504419614,
                -0.6570431784060985,
                0.563937512954668,
                0.24637658020778397,
                -0.16999420764390105,
                0.8275674329267664,
                0.43176847669843976,
                -0.01513299952034508,
                -0.8720192200839609,
                0.3246186055823317,
                -0.8368475417778117,
                -0.6104543402839705,
                0.9378837616824935,
                -0.8017674534589831,
                0.5420885922117571,
                -0.8737725288950711,
                0.2820679970467779,
                -0.05423784025676448,
                -0.4322749774122029,
                -0.41478019552993595,
                -0.6949991163308729,
                -0.014952780220169992,
                0.39453382948158944,
                -0.1524284422176091,
                0.11475743684673567,
                0.8346164346833791,
                -0.9033250407796936,
                0.5913553236012139,
                -0.5389122206433268,
                -0.031747083660097375,
                -0.6241991089769635,
                -0.32759467108528817,
                0.31120973793380413,
                0.9397384039777044,
                0.9187819091224958,
                -0.8587844706414195,
                0.7673058359731482,
                0.35055038582093556,
                0.1260825298382353,
                0.8952866158891872,
                -0.3248310095280553,
                0.28923498899174627,
                -0.7151677253261058,
                -0.38694724877688436,
                0.4874675355327631,
                0.8269208678169739,
                -0.2607197776719554,
                -0.23046446835178158,
                -0.22731697337111312,
                0.3070052458471644,
                0.35475533611828247,
                0.0776839112293366,
                -0.7079475353043282,
                -0.250710834400128,
                0.9252554690117274,
                0.40680990154240737,
                -0.41609440064807157,
                -0.978069571767966,
                -0.0018347748563787292,
                0.04499337870860165,
                -0.009816655428063426,
                0.37396611616665787,
                0.717398708554636,
                -0.6986069184255819,
                0.31370451921303966,
                0.6361806167458093,
                -0.5573913890670014,
                0.08101035518618782,
                -0.013268998364577511,
                0.5686911407712341,
                -0.02370302985594752,
                0.6618999930386897,
                -0.14207387116834236,
                0.2611292457492693,
                -0.7250472566695172,
                -0.6546063365669019,
                0.08805011263492046,
                0.01423296658984996,
                0.11492919601263907,
                0.8607331392638073,
                -0.6787617884943085,
                -0.530315468800401,
                -0.06158295043817863,
                -0.38670932379863654,
                0.21897369679947087,
                -0.13632748142645112,
                -0.9798994222562292,
                0.8028792961513993,
                -0.11439705319441718,
                0.018265802887392102,
                -0.15212732513999905,
                0.8757862913775194,
                -0.6077680818772726,
                -0.43472861751668557,
                -0.822820627979385,
                0.705936437335767,
                -0.7985480017021988,
                -0.3802120170463864,
                -0.2130532084093677,
                0.1881830008645462,
                -0.8115208772064749,
                0.7632437626660074,
                -0.14991700702808664,
                0.046405252556505294,
                0.0243730074839541,
                0.12503573630239617,
                0.39179891598960337,
                -0.8875768808124479,
                -0.8607312980390766,
                -0.49327188892908014,
                0.9731562584513596,
                -0.5394930865333849,
                -0.02358735679815871,
                -0.08842669198681907,
                0.07379759059930113,
                -0.8046136609300103,
                0.7752458265867297,
                0.09389816834307196,
                0.9982656361527116,
                -0.33915122753900995,
                -0.8878360297008585,
                -0.15386168991861016,
                -0.4633649370928131,
                -0.4956041115781311,
                0.4114096925647044,
                -0.28618556507219817,
                -0.7896676751736866,
                0.6128616908625055,
                0.3336024178814154,
                -0.0027208826517317597,
                -0.19895530920427074,
                0.5220815406749404,
                -0.23947712091704698,
                0.6511276837676427,
                -0.4315132076998769,
                0.7848958865669071,
                -0.2238365799299612,
                0.960285709221049,
                0.8973190057544591,
                -0.08456787796903764,
                -0.5329861806393537,
                0.8704752632744961,
                0.3759390364288999,
                0.44342646256248774,
                -0.21795142964364567,
                -0.5502633739031215,
                0.6388128025638,
                -0.44270560398823844,
                0.5436347944399504,
                0.6370784377851888,
                0.2181431684727515,
                0.6557987647390919,
                -0.5167832530647438,
                0.7547782313799385,
                -0.8398053477703619,
                0.8946264394999606,
                -0.5314073346235824,
                -0.6294730229440485,
                0.5074881294311435,
                0.8021950832578331,
                0.36780609440421963,
                -0.6914671797731273,
                0.32427662393277346,
                -0.8716710274441498,
                0.9596605039945154,
                0.8927634162328968,
                0.9132248591227572,
                -0.26417607686676836,
                0.8530491245226233,
                0.810543863945894,
                0.6512560460955166,
                -0.6799370561167304,
                0.68101912722039,
                0.027195081593093917,
                0.7634894064457571,
                -0.5369323033545783,
                0.4769317076899724,
                0.4023022080782346,
                0.020362093588505825,
                0.020566501198600262,
                0.039380644932100806,
                -0.761494738870065,
                -0.3236347349936304,
                0.522597391867357,
                0.9932834934411958,
                -0.16344008276399224,
                0.417223830435995,
                -0.538123842113709,
                0.20708689429195926,
                -0.07528804013286161,
                -0.7359287588558759,
                -0.4251070113038211,
                0.23324478009401117,
                0.5883478650768976,
                -0.29677803874797093,
                0.192905283157204,
                0.4811112803784716,
                -0.38355317962521374,
                0.9287292072217581,
                0.3341604049010949,
                -0.5730093166106425,
                0.5799852523859521,
                0.6542233487843645,
                -0.891990190321575,
                -0.39281966695227644,
                0.41771275429879906,
                -0.42892249274483063,
                -0.9158879601936265,
                -0.17998503762296636,
                0.5914396008436753,
                0.10467854100497376,
                0.8593956073091344,
                0.8299448619736103,
                0.7810438060113434,
                0.38199299917649143,
                0.8232283544834835,
                -0.38239627768397155,
                -0.20078317131883616,
                -0.7148954876302255,
                0.8246906166079877,
                0.7239287885483023,
                -0.4508242464861014,
                -0.6004163956271561,
                -0.042826432289009175,
                -0.8624763823405264,
                0.10280556655619555,
                -0.8499211491318053,
                0.6186348980379452,
                0.7192523869309819,
                -0.9211919428413696,
                -0.04720469799228233,
                -0.8537569306109831,
                0.6587933095445826,
                -0.3929813501392404,
                -0.7457471200012356,
                -0.7340263583390165,
                -0.9752685958404413,
                -0.17466961274606618,
                -0.649914318532643,
                -0.1552536334634077,
                -0.5832300128337136,
                0.4547642224723307,
                -0.29585802708559583,
                -0.753285151791426,
                0.2358080275523513,
                -0.9138650288404269,
                -0.9300567973079424,
                0.8534117498683798,
                -0.11464819922794034,
                -0.6449522849381679,
                0.6781023655450449,
                -0.3907194116109607,
                -0.09577653142426934,
                -0.9223140300821112,
                0.5664541570313526,
                0.04174708623520429,
                0.18049153647408422,
                0.7165330078995475,
                -0.3396180166581729,
                -0.10025607752625643,
                0.7953410650581778,
                0.6131772862808673,
                0.04598699186276045,
                0.45413437367143783,
                -0.7798040647896957,
                0.3002398718615249,
                0.7201080153324213,
                -0.755072660630137,
                -0.874429741815864,
                -0.9298063041315443,
                0.08967370590645518,
                -0.45765975464957753,
                0.5249579183407864,
                0.793815679752182,
                -0.21094490550968092,
                -0.23923405503818485,
                0.8799506509117552,
                -0.14100170281762336,
                -0.38582230610112767,
                -0.23469754924750774,
                0.21404601224420872,
                -0.7077199414874054,
                0.37458304007285426,
                -0.8817305201113832,
                -0.6300339715695167,
                -0.05896280382711572,
                0.1600165661238211,
                0.5504575649045675,
                -0.34242979685889086,
                0.820398549465648,
                -0.5497985135530115,
                -0.5470887327320355,
                0.4335758348151928,
                0.49618847924107157,
                0.9070456409394023,
                0.6537717709568198,
                -0.20357164982872622,
                0.627153655340501,
                0.8986991103266828,
                -0.07800139071326773,
                0.6973473512089565,
                -0.011627183766862004,
                0.46433885463715474,
                0.22230526861842037,
                -0.21781150494600254,
                -0.7466060518038486,
                0.9830712135802355,
                -0.33786085496556983,
                0.11239224537852799,
                -0.4027510934522148,
                0.427441596718245,
                -0.6735617433085859,
                -0.11047103493962018,
                -0.19797536414022343,
                -0.5552922634199691,
                0.2594949944221856,
                0.743061832032661,
                0.604724302703852,
                -0.19004744160456932,
                -0.5993679657575526,
                0.4251228521695001,
                0.2601540457737419,
                -0.1464566984895881,
                -0.1413013139466296,
                -0.24365747591650933,
                -0.23941105848150845,
                -0.48752954392113235,
                0.5527708742547646,
                -0.6122574040723301,
                -0.5888304335944496,
                -0.5252305173898257,
                -0.914910053794696,
                0.39954238263868835,
                0.9391083381786516,
                0.3073952148237242,
                -0.8182691232386368,
                -0.8074977145565198,
                0.2904664274726372,
                -0.1561299782042066,
                0.3048945317533307,
                0.8877153340204225,
                -0.7286883824172841,
                0.6313327884447448,
                -0.2227557018505203,
                0.0733362534424924,
                -0.9239594749752243,
                -0.9632607083596572,
                -0.18360191545616922,
                0.6807648277286276,
                -0.1533081490329039,
                0.2170301187862782,
                0.10588767896680529,
                -0.8931541041904847,
                -0.9294265806346325,
                0.9645863659514982,
                -0.1368115801069939,
                -0.1688376391161408,
                -0.5229431789009567,
                -0.584040706783552,
                0.2189049568115291,
                -0.1117736124954064,
                -0.1092712232420553,
                0.3039949030168332,
                -0.7122312307880405,
                -0.1701628859947263,
                -0.38860988309076516,
                -0.5305003540266773,
                0.02233939944875396,
                0.901856544381872,
                0.3133696687004388,
                -0.6727660697292379,
                0.7895718774709719,
                0.5846812862831547,
                0.9585667196468295,
                -0.4331838243795484,
                -0.34198246027435286,
                -0.9653927562597174,
                -0.39644453273920555,
                0.4744156242694779,
                0.7153720714689102,
                0.45024731822789055,
                -0.3085542569442439,
                -0.17874024956428458,
                0.5570932140374059,
                -0.23798083757887634,
                -0.21415388454410889,
                -0.5797183670009106,
                0.5931815242363054,
                0.26290293655493424,
                -0.16375907285314006,
                -0.18791351988348803,
                -0.848870675940472,
                0.7269697039048046,
                -0.883918616866655,
                -0.5611019067285126,
                -0.4431931830212442,
                -0.2725284999574201,
                -0.09160225982386727,
                0.5791462164275099,
                -0.3706719555755481,
                -0.778232592054751,
                0.9063801476295945,
                -0.5811000790358987,
                0.8064486942284035,
                0.8649468663451014,
                -0.014283903415447052,
                -0.535533766977272,
                0.8995541100853841,
                0.58927156477667,
                0.9388818582235285,
                0.6149261806229718,
                0.03951888207323795,
                -0.3696723996520379,
                -0.5638140698726355,
                -0.4033879038893561,
                0.39234676276908576,
                0.22203204558325562,
                0.016893729109733302,
                -0.014471713925931495,
                -0.5150650178618101,
                0.8531346562565931,
                0.7976147671219029,
                -0.3639356938022821,
                0.5801043592300752,
                0.9136961502552481,
                0.07496239946920547,
                -0.8630888247224916,
                -0.3588323506334947,
                0.9833601396453382,
                0.7160573926363407,
                0.2704956937909573,
                -0.7948724533407355,
                0.6224375393346127,
                0.689395615686381,
                -0.9884237591123319,
                0.4873844047483915,
                -0.32488828866038855,
                -0.5239575260896038,
                0.38693851390245304,
                -0.7356167248150411,
                -0.5850756687973978,
                0.0018646935941022402,
                0.3039021581895194,
                0.04525193155056417,
                0.4380506246527893,
                0.9005142543001632,
                -0.5624013056803501,
                -0.33991733069527774,
                -0.08259201752142609,
                0.42312698039371854,
                0.14501765144291223,
                -0.22945736126483296,
                0.2207417465842989,
                0.7810819576406303,
                -0.6493530029660803,
                0.13443789590822441,
                -0.1439556428901645,
                -0.5124418267572494,
                0.7756055462060523,
                -0.16059550417614887,
                -0.7963844350522311,
                0.04610123906568675,
                0.04453204341443806,
                0.8260531042823815,
                -0.26450314617925474,
                0.05610828430210635,
                0.3134375080994505,
                0.4106085660916794,
                0.5321507582125025,
                -0.29962397892941905,
                0.674991841276638,
                0.9470750903464271,
                0.7022407146646832,
                -0.02110600146516506,
                -0.007672979034331173,
                0.1402913383861497,
                -0.12059174809632434,
                0.42992571528531887,
                0.8003740086221947,
                0.7968162353135722,
                -0.1469473043209628,
                -0.05460834086621569,
                -0.4326411268825834,
                -0.9262055586679865,
                -0.27352638322558553,
                -0.08199412984866372,
                0.2082323381715605,
                0.5825179738842501,
                0.4055640433940868,
                -0.016162116553709915,
                -0.5780775312232215,
                0.6091796083418557,
                -0.9700608784193456,
                0.4664545121912167,
                0.43523271169291466,
                -0.2345640236672778,
                -0.47743720443799964,
                -0.25132978113895743,
                -0.8239554585069211,
                -0.9452864462254972,
                0.4490462399316235,
                0.8510363827697172,
                -0.9982113568103925,
                0.1512869545963067,
                -0.170069618695448,
                -0.005884335844723698,
                -0.7084217079488662,
                0.7093386332082277,
                -0.5759586205594049,
                -0.9080477002579941,
                0.5061548675904772,
                0.27709407511963224,
                0.0373439598071128,
                -0.9264862602234288,
                0.350888516451646,
                0.7638175765815274,
                -0.008480389140769984,
                -0.4408791463081162,
                0.34633554953445467,
                -0.6029163466780056,
                0.5429587371381739,
                0.7682580183112333,
                -0.99373673833615,
                0.5728978596501508,
                0.23471253050245,
                0.4414959733567647,
                -0.6616661649484495,
                0.7572753260644502,
                -0.8098338077821926,
                -0.48562162345537063,
                0.8119888798389532,
                0.639212432149431,
                -0.6345852416169762,
                0.8137775230285607,
                -0.20950061418558497,
                0.19534513968757583,
                -0.19210681281616293,
                0.08207767879687133,
                -0.0953162271041964,
                0.23193456662443213,
                0.17402997853887725,
                -0.5891613604450419,
                -0.4909713591872581,
                -0.7886260625853325,
                -0.5156476197371481,
                0.8599171572643878,
                0.9751915139961949,
                0.4758719911220819,
                -0.5809619890437284,
                0.32152706259932695,
                0.8729556444440763,
                0.9619967480944454,
                0.08978508091056026,
                0.8792189061079263,
                0.5348946068132736,
                -0.6755023895183123,
                0.320714879464691,
                0.8732284418648242,
                -0.9182270643851846,
                0.5108810716824983,
                -0.612393182521869,
                0.8937618163850911,
                0.15009350290060675,
                -0.2469784232075226,
                0.7075393384823294,
                0.9405928896463442,
                0.9483667164800533,
                -0.4845674752651562,
                0.022670567511893225,
                -0.14694951155546565,
                0.7473670913592758,
                -0.8032994548805521,
                0.2638891289308152,
                -0.7436042687593047,
                -0.591925516534562,
                0.7482415091936669,
                -0.883687111494917,
                -0.6167340034696898,
                0.22411349938442626,
                -0.4646491005386455,
                0.7047930600609598,
                0.09706914289717994,
                -0.5026523533755226,
                -0.20542185995980256,
                -0.02371195099489387,
                -0.9677577465622489,
                0.11907575052188513,
                -0.7029970724615255,
                0.9054706953025753,
                0.20084868613670048,
                0.807883999220973,
                -0.7069224872192938,
                0.09461050159046924,
                -0.04202249880974296,
                0.04609908957318365,
                -0.19785015992720156,
                -0.10142961009472129,
                -0.0055341948780855965,
                0.3175823648076421,
                0.9212409574171718,
                0.8475162944977712,
                0.06494945616691816,
                -0.8820584974633803,
                0.11140542249726382,
                0.3213451874076134,
                -0.4739840139979422,
                -0.1403530692403917,
                0.43765807591269645,
                -0.09071801746763197,
                -0.916239570787288,
                0.973008975374051,
                -0.3859249583379948,
                0.1808295721098918,
                -0.5296433780014718,
                0.4086531817022028,
                -0.8428823798163246,
                -0.49740112456372065,
                -0.4722710687072347,
                -0.5458794522778501,
                -0.5919304301924679,
                0.7285776183607884,
                -0.7379954539881999,
                -0.2988529174117618,
                -0.17681188098006506,
                0.21998204813337985,
                0.7472461721614219,
                0.6253379590927335,
                -0.881447562892664,
                -0.25828802271666373,
                -0.05707967609962439,
                -0.9602066054754921,
                -0.4107717291502151,
                -0.9921302208640288,
                -0.8422651029388724,
                0.7006336933470487,
                0.3292149665435846,
                -0.31624911693681457,
                -0.43971937682466555,
                -0.23312695754371904,
                0.5930328655955535,
                -0.35595894761195357,
                -0.26011798310099077,
                -0.7928920927424412,
                0.8248706244979382,
                0.21023863889753747,
                0.6157610889597616,
                0.9819882456129363,
                0.712837514333817,
                -0.8565099797474732,
                -0.5638912075962365,
                -0.879092915858651,
                0.872067638613315,
                -0.30188666065311365,
                -0.1779458332704128,
                -0.3047442432980725,
                0.9180953874802662,
                -0.43069966110899094,
                -0.679406284205339,
                -0.9633521763437205,
                0.3110123161743452,
                0.2635140396950366,
                -0.9235587818192126,
                0.9002405870241301,
                0.2713838188310078,
                -0.7658238847580849,
                0.6008742794398565,
                -0.39940121555673014,
                -0.0820730016948995,
                -0.8388450983161316,
                0.3674718268995507,
                -0.48904013609934605,
                -0.1948040459280852,
                -0.8926461562014399,
                -0.28193222884178726,
                -0.36993342236146953,
                0.31759248269609763,
                -0.6661711408133484,
                -0.3879451776798559,
                0.030429997029914446,
                -0.5226811205608217,
                0.048163615655230085,
                0.15133708117126354,
                -0.650613482878829,
                0.7462769550021164,
                0.9733912479008506,
                0.04464227475442106,
                0.6643723415510601,
                -0.4573084141394629,
                0.36523599054908185,
                0.7010201652073396,
                0.8537039020348824,
                -0.371249970687204,
                0.7774613843194496,
                0.75394448812769,
                0.9001338481438037,
                -0.9883625013699581,
                0.3548187666362239,
                -0.4992673683442489,
                -0.070435502133535,
                0.5159736683200922,
                0.8682044594866245,
                0.44052436176711907,
                -0.6788303785393156,
                0.9755583032851844,
                -0.8414078680059909,
                -0.04876379996946256,
                0.2931507850499595,
                -0.5075790088193393,
                0.5632910223506815,
                -0.6764192188514486,
                -0.030260128448838408,
                -0.38854536292541086,
                0.4749178623198149,
                0.31912638867233256,
                -0.642268408854617,
                0.44830911022066555,
                -0.6362313375045692,
                -0.9778960682348795,
                0.9910006960812028,
                0.7290046530445129,
                0.7231240979037825,
                0.8447045981160852,
                -0.6422453185740138,
                0.5005854812919095,
                0.5986490853124526,
                -0.7421114713615325,
                0.5122229799219513,
                -0.04653214805132344,
                -0.24137883877445887,
                -0.5582125231429061,
                -0.5305584806625538,
                -0.37317438021915705,
                0.8823118386242128,
                -0.20938885827054687,
                -0.3976160778652952,
                -0.9590960303131006,
                0.7418473417599907,
                0.8955347071846642,
                -0.46667503820111744,
                0.3051383631793496,
                -0.7808845116667843,
                0.503064833350044,
                0.9165930011852612,
                0.6940333506530305,
                -0.17780877890894597,
                -0.7256754086006785,
                0.1423424599423737,
                0.18595988451780743,
                -0.7035714759042353,
                0.1333431560235765,
                -0.08503546336900236,
                -0.9804473789317754,
                -0.021952246791660857,
                0.27271921898830653,
                0.5201381023601341,
                -0.4233031624105308,
                0.5306077476267739,
                0.03236108135076288,
                0.5301646895381458,
                -0.7107710920790076,
                0.4741485591391794,
                0.9996062098069145,
                -0.08394547229816463,
                0.35646039683206965,
                -0.20978264939495483,
                0.5184384498365402,
                0.39736436745029136,
                -0.46793530856628685,
                0.41397315702120463,
                0.930689329249174,
                0.8372030546130627,
                0.6330886453544202,
                0.4337541616678955,
                0.7537960548670013,
                0.3271219950761284,
                -0.7440546181723731,
                -0.9718793537336771,
                -0.5305355449814981,
                0.4419052663454346,
                -0.6754508296379125,
                0.6028076110420784,
                -0.6431301970235679,
                -0.6558982085696878,
                -0.41914463668090507,
                0.6295890219647386,
                0.8642398937904461,
                0.15755220090856414,
                0.16019676866018995,
                -0.10339902579011351,
                -0.3122831095532901,
                0.44942567751250495,
                -0.6292504675822568,
                -0.31267690067769816,
                -0.6345197957169822,
                0.7272099301811354,
                0.477540449927347,
                0.8839186550508806,
                0.12457429670010423,
                -0.9903948595702624,
                0.29789181114076246,
                0.055263625017955675,
                0.8468081950428001,
                -0.06901954443613978,
                -0.5109822142454712,
                0.6006042499098014,
                -0.7418975502913341,
                -0.25503683241784425,
                0.6287248961761245,
                -0.2724330952728321,
                -0.8131315660724098,
                0.953274066538212,
                -0.6696254851620763,
                -0.45626176309597766,
                -0.7026241429627986,
                -0.08877012184298139,
                -0.8266727420625616,
                -0.8383842501036749,
                -0.9312179209344172,
                0.3335240265976285,
                0.05821672410621148,
                -0.24350103048770733,
                -0.21705029682118926,
                0.4289662574552773,
                0.4438220688345944,
                0.14842990839315107,
                0.15617618670509015,
                -0.07863748216938116,
                0.03234856251270912,
                -0.7192495175261281,
                -0.06903234173964357,
                -0.669759627277851,
                0.3360141074918277,
                -0.2222241476281659,
                0.26122082828600934,
                0.8250318932463563,
                -0.6216198986496869,
                0.5193232779946753,
                -0.43000494010281043,
                -0.992895003404885,
                -0.753109817278157,
                -0.2431365061752202,
                0.9603790631333269,
                -0.42273530244023316,
                0.30060173072880225,
                -0.7422450807607943,
                0.4884945766481079,
                0.47392898866624056,
                -0.5806293308644692,
                0.5572766557136908,
                -0.19254698473613108,
                0.47758739417306484,
                -0.6862243757053392,
                0.5904027184426797,
                -0.09344634930298024,
                0.7575976931292554,
                -0.26116737409549173,
                -0.9372701635292127,
                -0.32103978997144833,
                0.7711811884172173,
                -0.6565196810553408,
                0.609927868288908,
                -0.8985784397919562,
                0.6794944264364868,
                -0.6122962802705803,
                0.36264238849405306,
                0.5045263187515205,
                -0.2339161779889447,
                -0.11803433351127168,
                -0.9254786222826125,
                -0.22681118139382972,
                0.12885584921057136,
                -0.1686151275265101,
                -0.26643211826050284,
                0.7061205467703382,
                -0.8680133977290305,
                -0.008677199021297155,
                0.19461512248712354,
                0.6059155918685326,
                0.4106934710455563,
                -0.24810822273050814,
                -0.5866313937989209,
                -0.11171913571270142,
                0.06566740156415274,
                -0.9962286762875638,
                0.7948345149843183,
                -0.17673490623791466,
                -0.257396049451733,
                0.8575643514551057,
                0.502225303790637,
                -0.4862148619658383,
                -0.7989553305315578,
                0.11215317114822243,
                -0.3847933008264719,
                0.8805390959049291,
                0.49985689180896475,
                0.9778490876675812,
                0.38506541372512726,
                -0.7340592871113025,
                -0.1401852467750131,
                0.4595867914425147,
                0.039129531494867864,
                0.9886706024355585,
                -0.7090283370153179,
                0.7726974132343649,
                0.6947911492058967,
                -0.5770417338130258,
                -0.23597978578693224,
                -0.11059372923830235,
                -0.9711261428758158,
                -0.8252863156726986,
                0.641298048962512,
                -0.5577575366747367,
                0.06299454861459997,
                -0.29303455040465787,
                -0.5539862129623006,
                -0.14217093733240427,
                0.53023054428875,
                0.18861773758596634,
                -0.2846065868086213,
                0.03245584714806449,
                0.7024028765514507,
                -0.08356191734017893,
                -0.8553909817037131,
                -0.6823904252063439,
                -0.20302282236657232,
                0.6444659101052517,
                -0.7045413384700852,
                -0.8179574095727677,
                0.9104066229939491,
                0.15527341568622433,
                0.6416293818697469,
                -0.05046384644250568,
                0.14394401719046002,
                0.9326010457857516,
                -0.27776643320814076,
                -0.16126483453496587,
                -0.6444406889585967,
                0.486253781004927,
                0.7281414371580543,
                -0.6155668318344125,
                0.6609674653322284,
                0.36943948518924397,
                -0.17332436850914934,
                -0.2760379869844941,
                -0.9235950661467365,
                0.27268941852855,
                0.5817910756831015,
                0.6066354781420136,
                -0.5386928438854837,
                -0.7028155120568422,
                -0.36090867470992205,
                -0.8362899682653555,
                0.21362257060297885,
                -0.21629965641363513,
                -0.5186803934716994,
                -0.989400252694916,
                -0.5718337472397059,
                -0.22322173194178463,
                -0.8073576622676839,
                -0.6614271251770794,
                0.9320516837444397,
                0.8342717196020633,
                0.28810902838041486,
                0.07599570093489993,
                0.7668727644564923,
                -0.9896574057590484,
                0.9147308663999341,
                -0.8775679254334271,
                0.49659637524587863,
                0.6428723026266658,
                -0.4931347572678396,
                0.15756383964678444,
                0.012311786884587228,
                0.33354087422301104,
                0.8815258526622904,
                0.0887167216691731,
                -0.39376970724843896,
                0.4633169274140694,
                -0.3046478011201358,
                0.06753744886607738,
                0.7605014153572272,
                0.33444352416994216,
                0.23124748060072187,
                -0.02587601497111658,
                -0.8818561331750155,
                0.7125670871290224,
                -0.015276267666032628,
                -0.45368988041472147,
                -0.5106546457440847,
                0.17736607006628358,
                -0.11511700559180094,
                -0.5786029619996449,
                0.01163778966834661,
                -0.827007977211386,
                0.4973927389352548,
                -0.22148944680648364,
                -0.8166653829704343,
                0.4121236044038663,
                -0.09905737130858816,
                0.679930993206767,
                0.05499590703053214,
                0.4078078714235722,
                -0.16250516807777116,
                -0.9326923070162033,
                -0.25865125435341674,
                -0.2809793154154808,
                0.1560244146529699,
                0.3475790383981443,
                -0.817662388932734,
                0.8513766144641566,
                -0.5848835136671009,
                0.9428390273558158,
                0.18582013770277617,
                0.646363966933621,
                -0.08303698854662334,
                0.3039640054590833,
                0.358931053131321,
                0.9016867447186665,
                0.8502741250443617,
                0.8482764073872364,
                0.0790528138536275,
                -0.2648428805474392,
                -0.7303265555437313,
                -0.9093093974093485,
                -0.09185085775882507,
                0.7670661833915235,
                -0.13079884328450953,
                0.09148375927074048,
                0.17918978779538985,
                0.7701437854069024,
                -0.22858524845381512,
                -0.7658143061054006,
                0.17795165589915207,
                0.6089095843997363,
                -0.6985066131216039,
                0.9193004015457353,
                -0.6720697319470671,
                0.45751780246268847,
                0.26687943901255706,
                -0.489732120879801,
                0.3088944159955227,
                0.6819959253454562,
                -0.5468930944553079,
                -0.5052854472330238,
                0.3283598913477548,
                0.37006991792939137,
                0.7986785582260594,
                -0.3127090564522469,
                0.2717566617167353,
                0.6489526832704211,
                -0.4644326490650106,
                -0.6491905253609598,
                -0.6158901982083405,
                -0.19475920460874174,
                -0.5584999218389857,
                0.29225894403283426,
                -0.4276930212172182,
                0.3107012348765048,
                -0.6162572976277476,
                0.7514967665781718,
                0.08084501935208444,
                0.15515745484975985,
                0.9856824604727712,
                -0.7412033256800861,
                -0.23593296168182654,
                -0.7128241535801553,
                -0.8219029241343508,
                0.09199730637110637,
                0.7446936488825333,
                0.4449765148782061,
                0.6022651854913055,
                0.05358806394673321,
                0.1269724402236625,
                -0.9446279089640025,
                0.5483026176450321,
                -0.5446676693599055,
                0.425442008965389,
                0.3469811749397689,
                0.14262327511917028,
                -0.3028013302491984,
                -0.004066142721132482,
                0.6781906260541597,
                0.04800814438984169,
                0.38004365907052695,
                -0.5165685794859047,
                0.489508222550856,
                -0.32769739782796126,
                0.055738399296877184,
                -0.19979054350396175,
                0.056045305475613816,
                -0.19276483505627362,
                0.8810544758481227,
                -0.7887972406059491,
                -0.207082375514825,
                -0.8601488498319634,
                -0.02473020228777556,
                0.08009347183634219,
                -0.6820517739663141,
                -0.9327328968479917,
                -0.17521288021244708,
                0.762924740911892,
                0.6695322886433137,
                0.8783751846656087,
                -0.11010281979576819,
                0.7249043796793113,
                0.4266778013793182,
                0.345229511775649,
                0.1503463877133775,
                -0.22634102461223538,
                -0.5121472140365034,
                0.8475450574641792,
                0.7695928335979547,
                -0.8339565889136664,
                -0.10444679814597913,
                0.1496364917371591,
                -0.35052516839957104,
                -0.6149385765264457,
                0.8219390948405205,
                0.7052132318286286,
                0.18527088090091515,
                -0.12201560061518835,
                -0.4875516041589676,
                0.06632535581771526,
                0.08918715877886263,
                0.30536602125753,
                0.20617650598575188,
                -0.9355430444402355,
                -0.6145405078374504,
                0.5241247320194378,
                -0.8682759412882272,
                0.21024661195010252,
                0.28704947293132976,
                0.8012563473550864,
                0.08862179568438866,
                -0.8230533477957609,
                0.5261607270343978,
                -0.4847004038676156,
                0.5221761639798881,
                -0.3234928861835473,
                0.2889585724514716,
                -0.989971050987938,
                -0.47594782871936814,
                0.05855140511810375,
                -0.8239276399016043,
                0.41960537313465274,
                -0.7918121040760596,
                -0.1744528073698528,
                0.8046667966082073,
                -0.9698730101668616,
                -0.46923957647254666,
                -0.010062323422200148,
                -0.0918886107820499,
                0.04320881936848564,
                -0.9437369676044849,
                0.9972985479968128,
                -0.6514251603053068,
                0.2624395383812672,
                -0.9382444973747454,
                -0.26596566814275724,
                -0.21343572959929502,
                -0.8065204386629725,
                0.944280944738668,
                -0.9263862575992878,
                0.9947359096234365,
                0.03290273949173406,
                -0.7494396053950487,
                0.5208966357265117,
                0.5482023365554411,
                0.7727365595161619,
                -0.8025962513883581,
                -0.16283909192440993,
                0.7827655085282239,
                -0.27854408010772624,
                0.8957123131936939,
                0.9588378695579423,
                -0.858938707904396,
                -0.8960997918136883,
                -0.21561493874323323,
                0.9457280896351339,
                -0.8659728010492272,
                0.3151454847842201,
                -0.06433423471838895,
                0.042138588168722846,
                -0.6416456967786167,
                -0.008071202322873838,
                0.03943713616553568,
                -0.293070856152601,
                -0.7456316639416067,
                0.10119263879079021,
                0.44096347570464167,
                0.04093260645909824,
                0.29467220105914027,
                0.38524441951198707,
                0.11454634885981041,
                0.2894081097512544,
                -0.5818528409962789,
                0.3651067434647617,
                -0.18969525545355648,
                0.9663494955591623,
                0.13784330204960105,
                0.007708493158085528,
                -0.19648959729657023,
                -0.07939118942217493,
                0.729164413981682,
                -0.30077728503419887,
                -0.12055332079555525,
                0.870225706077286,
                -0.19687707684788713,
                0.6638317404612115,
                0.8159537947810971,
                -0.06284987789711438,
                -0.02102277568589095,
                -0.24838043993729186,
                0.9792887112029309,
                0.3373315275354922,
                0.7435483577398343,
                0.018725846437144034,
                -0.9557393295484312,
                0.9979166937982276,
                -0.8800815157033882,
                0.48522414708753314,
                0.03884929932600323,
                0.41459068535575216,
                -0.12953143433180236,
                -0.8466043527455089,
                -0.2960012058243161,
                0.28861572467191876,
                0.5185023916505753,
                0.5143035387221275,
                0.25496521929975846,
                -0.3436543072311461,
                -0.47798796811978705,
                -0.9415243789281343,
                0.576954503346679,
                -0.7488235550694278,
                -0.24230166396233332,
                -0.5435988183801987,
                -0.8785978499234643,
                0.560821260121102,
                -0.8797670788503099,
                0.9373559457889553,
                -0.5020286187073348,
                0.09921014546379925,
                -0.3110244950796591,
                -0.5227399084357265,
                -0.5634583270007085,
                -0.5674761382711475,
                0.49598593800141755,
                -0.5191976565491397,
                -0.56955944447292,
                0.6159044232293518,
                0.9660264905383933,
                0.4692898548530833,
                0.030495107653781384,
                -0.16350494379340896,
                0.6226855030388969,
                0.7344939027607877,
                -0.8748892200528128,
                0.14118789375814966,
                0.2487974405515927,
                0.38007600017826815,
                0.7975335865270037,
                0.7708094724318058,
                0.4385516212501337,
                0.37448808987368265,
                -0.9780140835689446,
                -0.8037500427121995,
                0.8308892714934839,
                -0.8566119325610865,
                0.7570712174089025,
                0.9511221935744967,
                -0.9192559877034537,
                -0.7449574022297549,
                0.05033233810697335,
                -0.23028048278311286,
                -0.26769730973415884,
                0.4868740111062648,
                0.20224337894573963,
                -0.7717113726640639,
                0.9676763554884475,
                0.6326839344728197,
                0.8441930505652879,
                0.9337028450955185,
                0.10197378932590317,
                -0.1253118417809307,
                -0.22980209962921316,
                -0.2753407085665226,
                -0.3908179399514654,
                -0.10469131875070337,
                0.8658471851916272,
                0.8579795006001272,
                -0.7246153195037578,
                0.6633807707873083,
                0.6287889730319329,
                0.713936301746376,
                0.03786885972966858,
                0.6507748894629883,
                0.9101862590341765,
                -0.13124186877684751,
                0.7941629569019018,
                0.6672574755117564,
                -0.18011967613367352,
                0.8749069691984481,
                0.922300074213324,
                0.8702126619732997,
                -0.3553735145159874,
                -0.34539723645215725,
                0.35708667307956454,
                0.8468698653610749,
                -0.11710860911622112,
                0.3247630276366895,
                0.479553798902572,
                -0.2729155585509332,
                0.2584658718008854,
                -0.4184724127028475,
                0.6017725996681362,
                -0.9713362278283276,
                0.3061868787306299,
                -0.7890453412146519,
                -0.0760275465790311,
                0.1720340629909347,
                -0.9310658415458472,
                0.1993571339172111,
                -0.164585166221757,
                0.6977231314860857,
                -0.08670656526773546,
                0.8732836935079116,
                0.348498020949074,
                -0.17652030623355897,
                -0.2579581762002586,
                0.1426609769196534,
                -0.509262831653125,
                0.5619221476660679,
                0.01756794611810153,
                -0.5869627583711234,
                0.43213480963936757,
                0.662194431602114,
                0.0676400051767192,
                -0.21077851821239035,
                0.5090642960318663,
                0.9505313969918208,
                -0.8860154915070233,
                -0.011381905065561582,
                -0.322384162490435,
                0.3724503802938621,
                0.5701456822315909,
                -0.7206115637536215,
                0.4011141524655344,
                -0.1236674390377791,
                -0.5096569049682733,
                -0.6749133950448192,
                -0.9516333769781671,
                -0.44072274651412047,
                0.5244437388723919,
                -0.11621854319992408,
                -0.7429996150280347,
                -0.5622628263953434,
                -0.24293484969201262,
                0.6054984059210393,
                0.2612168673710975,
                0.49910697410772875,
                -0.25184061809062985,
                0.7519540357179726,
                0.0610291217737966,
                0.7657273280274717,
                -0.8350087226531508,
                -0.5068360695181582,
                0.4279217596295857,
                0.23263128252356835,
                0.28238541226945135,
                -0.06301394526987059,
                0.18316267858406654,
                0.39636992076242805,
                0.9256041496645679,
                0.8607785160936314,
                -0.2311796998750324,
                0.49574983189615884,
                -0.8598330485913125,
                -0.8300655474094979,
                -0.627917608072943,
                -0.3694899535595858,
                -0.5049789424543171,
                -0.5795509850511099,
                0.1897873008576163,
                -0.9805352035819251,
                0.3042304726802887,
                0.4467876858295816,
                -0.5427980299772686,
                -0.9387043779430466,
                0.05228609081929836,
                0.7184188373938292,
                0.5604025961646821,
                0.8004454727286685,
                0.47037287218047896,
                -0.3785682829928436,
                0.56617280075614,
                0.6353641495273281,
                0.11459564748899798,
                -0.0059054405455968295,
                -0.13200456794910342,
                -0.6030189411728731,
                0.9310806141845327,
                -0.9488418902963595,
                0.793350979589555,
                0.8566847638491004,
                0.9119366267285947,
                -0.4378287202854775,
                0.3524345948139367,
                -0.9478964227940405,
                -0.2678942676949754,
                0.7245169867409937,
                -0.31738637542230375,
                0.22712678985070744,
                -0.8550339992414386,
                0.8724009254353124,
                0.24659158626878241,
                0.44919647343884983,
                0.3191886103335715,
                0.7037935562915139,
                0.5104920954958034,
                -0.6285252997784527,
                0.42221239275402045,
                0.07089469166048556,
                -0.8280798279811068,
                -0.10741473506550059,
                0.692326408667642,
                0.7380929727750332,
                -0.47205058646949505,
                -0.19307794384336008,
                -0.26781246870188624,
                0.39594484558140164,
                0.2039031149837669,
                -0.33673185451735366,
                0.44710295621636464,
                -0.0027459054266781857,
                -0.4800470915995757,
                0.3590395820136367,
                0.5594253742878443,
                0.8723875032143609,
                0.4111431592195962,
                -0.7084688943384536,
                0.596904489024032,
                -0.9062432171340302,
                0.5186578955122538,
                0.7418704897825934,
                0.9661577083012824,
                -0.23475051821896364,
                0.19106696322144323,
                0.28534631770353136,
                -0.5309569628587724,
                -0.2984409422140759,
                0.6568210179250786,
                0.8912554308265705,
                0.7724537494464097,
                0.8287411908752942,
                -0.2161593051702526,
                0.4647801581140516,
                0.5668341627190048,
                0.31179010836025234,
                -0.728297786660631,
                -0.7009783059828814,
                -0.292265046058346,
                0.47560532832313585,
                -0.03771016050023501,
                -0.8451620907733041,
                -0.527140578034865,
                0.4822427479001892,
                0.5138774912403326,
                -0.9677152046783433,
                0.3546302501832277,
                -0.07497935047139381,
                -0.6761840990167969,
                -0.04846526172406285,
                0.01877743332589854,
                0.8424737974267797,
                -0.306594772872792,
                -0.015064859304141698,
                -0.3922767217235066,
                0.8844721903486514,
                -0.7297185416006104,
                0.07676631541772116,
                -0.4139687518654246,
                0.9271024763244682,
                -0.03197825468703097,
                -0.6415150033503375,
                0.7558436662684398,
                0.7518624401427165,
                0.823265154763714,
                0.32267782898744457,
                0.06365254850296886,
                -0.9050326328282396,
                0.6216995230045632,
                0.7713875024446228,
                0.5705726964262188,
                -0.41601063842699426,
                0.9262254116713187,
                -0.9565678825399688,
                -0.9337678914581276,
                0.44010290198032886,
                -0.9242830862869895,
                0.4208623587250999,
                -0.6348764494223876,
                -0.6004671853037864,
                -0.6276029039302855,
                0.383900983903511,
                -0.7579933888083293,
                0.06580232319692247,
                -0.6311638754006307,
                -0.15027011053183592,
                -0.04972548645442609,
                -0.36088241700124113,
                0.9264962058172077,
                0.5363057616801494,
                -0.4337799416080955,
                -0.10548204980114573,
                0.8947907583298118,
                -0.6779362753396557,
                -0.3536196096584292,
                0.7180559130935258,
                0.644741553647789,
                0.7100329388445397,
                0.8130232802652861,
                0.2664410757210296,
                0.48142044035783993,
                0.38359597576018234,
                0.8504304372940354,
                0.407645851097836,
                0.4270280941515361,
                0.9166625458359079,
                -0.1522512478531577,
                0.5027450078645466,
                0.33752490362968524,
                0.2128723027244548,
                0.9022778225607602,
                0.7099219996993997,
                -0.4032267133720343,
                -0.8557155662475692,
                -0.22427567803500015,
                -0.0343905887726651,
                -0.005985676779405091,
                0.7259988355105738,
                0.6047269942260938,
                -0.07948947189351985,
                0.2623045962594006,
                -0.8290529483133242,
                0.8150284792366571,
                0.15709535458921242,
                -0.5069892236529799,
                -0.5385911313530948,
                -0.12484873324858436,
                -0.8622476709365136,
                -0.8285581934398777,
                -0.3118254539146207,
                0.40419340478451615,
                0.6528622469179621,
                -0.9282294781544383,
                0.254623841147229,
                0.0605080970844758,
                0.49879861599709785,
                0.17128638605181434,
                0.9082568492313181,
                0.0015436229303216198,
                -0.4911887112498231,
                0.1211291510244501,
                -0.09617855544024079,
                -0.7812667124817458,
                0.7179024376524159,
                0.04810587831218993,
                -0.005542389585423413,
                -0.3164881520515719,
                -0.957879798467215,
                -0.27954355500617234,
                -0.7117611587568005,
                -0.037369270360734896,
                0.9827610421845507,
                -0.5408141061388022,
                -0.22234079205540047,
                0.13985639584244058,
                -0.047803329791782145,
                0.23906807659150475,
                -0.9849923383374662,
                0.08994900020302699,
                0.4105098831516272,
                -0.29681779225208693,
                -0.5058575959437794,
                0.06337212913826673,
                -0.22504727040652528,
                0.7487662461347722,
                -0.8761197747085802,
                -0.7262486553407501,
                -0.07994736874473629,
                -0.9678629264085846,
                0.2752949675895715,
                0.4288639209367633,
                0.15326622554718816,
                -0.8208835878506692,
                0.6475972084550174,
                -0.12883133773171873,
                0.22722229046152087,
                -0.35794518206172865,
                0.554680511148032,
                0.2693424919943057,
                0.3625112638634216,
                0.8429193523912315,
                -0.7680267783664292,
                0.34527230511664997,
                -0.6978947546788933,
                0.009632429578170454,
                -0.5148712999722321,
                0.25430191646064726,
                -0.7512994938303248,
                -0.4998636383096984,
                -0.6557490842676484,
                0.6592103893213022,
                0.2033185694382147,
                -0.161606680211428,
                -0.277417481540431,
                0.9782712999630121,
                -0.4128404350079784,
                -0.15353725624901116,
                -0.7479773563090606,
                0.5072121971786079,
                -0.1214001817262732,
                0.5273176122118335,
                -0.0639238828159514,
                -0.9681339571104077,
                0.7064340243611644,
                -0.41632667529225664,
                -0.09696529484212646,
                -0.0663436861086375,
                0.22572814357733728,
                -0.542284784625417,
                -0.7970011941143317,
                -0.4117605934905636,
                -0.6993654322341855,
                -0.5650279724807609,
                0.9335117116260863,
                -0.39726018691307874,
                0.4446044570974095,
                -0.5813595892774684,
                0.8570417295475685,
                0.6933049632670847,
                -0.08122322758716682,
                -0.7987073556514026,
                0.35251535258838684,
                -0.8779046590802747,
                0.0396859650684922,
                -0.9249021298833667,
                -0.8996333600485853,
                0.6268455300605136,
                -0.07843938613237789,
                -0.6476107154263233,
                0.13405772630779889,
                0.8001604321413489,
                0.8797068967855102,
                -0.929866157439475,
                0.8320264750309412,
                0.586140920215352,
                -0.34619283180040905,
                -0.2649388198111853,
                -0.48020276682460805,
                0.8795353117769282,
                0.19277639556339765,
                -0.27720396093893984,
                -0.5322252826449578,
                0.4934109633292123,
                0.1577680665802994,
                -0.5987135719501941,
                -0.9038492235838664,
                -0.39762747632229123,
                -0.1800731612276627,
                0.9531925059637021,
                -0.704322513986529,
                0.7387036111851706,
                -0.8455148496877005,
                0.6481928386018578,
                0.8607989521048958,
                0.19417111538079146,
                0.7232907087184912,
                0.961165592987633,
                -0.17898335549001743,
                -0.3551486774138868,
                -0.6864451233700128,
                0.9550743717491041,
                -0.5549882462038604,
                -0.8067382275158251,
                -0.9747917866216934,
                -0.7229617711729193,
                0.7794026926995268,
                -0.32098461842210246,
                0.012099409015895457,
                -0.7008000750564038,
                -0.4414493075764968,
                -0.7951241963520292,
                0.021995964935978884,
                0.02632540977854525,
                0.6982867679085054,
                -0.8202359694150444,
                0.4276118378283511,
                0.794437544324639,
                -0.21786344573733563,
                -0.7524613243306342,
                0.7476300493570185,
                0.07781404120745794,
                0.9862422868545364,
                0.902115199669318,
                -0.2739931211220068,
                0.8470412389594322,
                0.09628631411878685,
                -0.5507024124035158,
                0.8082068310157429,
                0.9173029595600921,
                0.09414891018259763,
                -0.8782382932855926,
                0.8723773303778737,
                0.5391606639787372,
                -0.6849765208014178,
                0.8975855437561802,
                0.8161988928058179,
                -0.9055738290332136,
                -0.4233990746659222,
                -0.17170169910960908,
                -0.6063739040896174,
                0.1351516177575809,
                0.033174105469684134,
                0.41562206084636144,
                -0.8385229724638736,
                -0.2685391275531329,
                0.5953860923626395,
                0.5890888653644775,
                -0.4741015841598164,
                -0.6224773543060187,
                0.8366275419651659,
                -0.7264715357341205,
                0.45533668690143925,
                0.8228698278883797,
                -0.8243563360648026,
                -0.8186564342205676,
                0.6699110659164893,
                0.2719299780539841,
                -0.36935884662408325,
                0.4781178960009096,
                0.18923293668275365,
                0.7247900635585143,
                0.599879602715317,
                0.06161026612930476,
                0.2639507266059289,
                0.9149030819138992,
                -0.04080419011451497,
                0.08014961941174681,
                -0.9906707480506369,
                0.5357967352195627,
                0.9084479203021376,
                -0.5970446512089319,
                -0.32905164795417885,
                -0.05837797515950072,
                0.8185774096374294,
                -0.1675746204180525,
                0.6730828972873664,
                0.41396350106874635,
                -0.578485755053575,
                -0.8010186878037726,
                0.7914861476940505,
                -0.7418582140197317,
                -0.5274902226065705,
                0.24682283366416713,
                -0.9189883870626746,
                -0.35184655867137316,
                0.4281663994435996,
                0.7509226797851374,
                0.9200834193826111,
                -0.9411924481118062,
                0.2290405748547244,
                0.10931635606536472,
                0.7835976154467079,
                -0.17107982242995867,
                -0.8290733787366531,
                0.047548342052636805,
                -0.256176741447382,
                0.13012243114883204,
                -0.872302039466939,
                -0.24684748856669636,
                -0.3340808345629279,
                -0.9638541200961238,
                0.15610786022437173,
                0.3368675184142158,
                -0.022232094324301954,
                -0.025314731069521423,
                -0.8307071029351591,
                -0.34914919796825816,
                -0.611351230000775,
                -0.40919285798873417,
                -0.1501678848407082,
                -0.8198650832380472,
                -0.1510510720084659,
                0.3223418925527213,
                0.42695775042611994,
                -0.07003945813981793,
                0.970495333881348,
                -0.14487585013028037,
                -0.3191167792860031,
                0.8905787523326365,
                -0.08606829824208673,
                0.9099237955687214,
                -0.00010489253332135462,
                -0.3024706827953787,
                -0.26115602779256,
                0.17082172966134812,
                0.7450776592572581,
                0.4826672316913807,
                -0.6990558401211424,
                0.8727756197903191,
                -0.7641802578066383,
                -0.03313667375274776,
                0.9089214996941954,
                0.3919276024177334,
                -0.6962691562698544,
                -0.1133105955614292,
                -0.6333871295831106,
                -0.5269762592050136,
                0.5375402074016353,
                -0.24473835958388557,
                0.06383088373757473,
                -0.6126276783703954,
                -0.06460344282193264,
                0.9127798117291088,
                0.7097142141823258,
                -0.6376456923958127,
                -0.15725964734203168,
                0.6802095471323513,
                0.21747845747390682,
                0.5236235733719652,
                0.5707882985336652,
                -0.8685898416995024,
                0.4335473689406866,
                -0.42931659399965616,
                -0.17106052449488107,
                -0.827608659783196,
                0.741505135661692,
                -0.42598286616894554,
                0.6550585719081845,
                -0.9575507053907731,
                -0.553207247309949,
                0.8908783141015462,
                0.009312620856479104,
                -0.6442857476157535,
                0.282805915587957,
                0.3130434645866247,
                0.24240365682281717,
                0.649418786936169,
                0.7860672063129335,
                -0.22005613670687008,
                -0.5953195735790393,
                -0.15010191088081426,
                0.16731618492273426,
                0.3400769845303506,
                -0.237322100083028,
                -0.12296960182626249,
                0.7024312921345379,
                0.6054182535062629,
                -0.4427600556252338,
                -0.08009025132287773,
                0.1290418259469055,
                -0.8719717570915687,
                0.05131990697762001,
                -0.4374108060437305,
                -0.30128835109122487,
                0.8802593834140615,
                -0.2650194648956039,
                -0.5597832163608555,
                -0.5457234836862066,
                -0.609960893918742,
                -0.5173339217516286,
                -0.098930730064833,
                -0.7190825798171957,
                0.49197870003617306,
                0.2567835223194135,
                0.5637233357707614,
                -0.19497783630852483,
                -0.5008128217890918,
                0.21314212177560754,
                -0.4089106309269138,
                0.2791310424353606,
                0.617822549127891,
                0.4409874581922719,
                -0.5535527735732275,
                -0.04210046727308092,
                -0.7963346418907562,
                0.32347762553183257,
                -0.3396691760698656,
                0.8090836116155067,
                0.8807175699065988,
                0.5802405726072568,
                -0.061874563368910285,
                -0.9912541881162925,
                -0.36843952134644586,
                0.5007146315186819,
                -0.2925425392075174,
                -0.48818013886370704,
                -0.7643048343082447,
                0.14767424443162702,
                -0.03390362161859106,
                -0.37426572822698656,
                0.630340323611321,
                0.8671656483165759,
                -0.09334830804418226,
                0.12231902271617168,
                0.12394916970466685,
                -0.529624972273421,
                0.9273411864076466,
                0.6231363479155752,
                0.6835171495021866,
                -0.4815694445192672,
                -0.09773261058038685,
                0.301339697698755,
                0.9594180136730046,
                0.3487146167777082,
                -0.7407607705056485,
                -0.836916629149074,
                -0.3278077586217819,
                -0.08042994657551406,
                0.9721669824664327,
                -0.4470901896465058,
                -0.5001893748995798,
                -0.08970758090247755,
                -0.43834437683147587,
                0.13137110468529678,
                -0.5889929503151183,
                0.26911308396100675,
                0.6431909658215897,
                -0.3532977846233629,
                -0.5832126716073661,
                -0.3907126567283239,
                0.2724364871496505,
                -0.9528723489273676,
                -0.5235470093430705,
                -0.8209118208945319,
                0.16944667378880385,
                0.6004021603615965,
                -0.35053679316795283,
                0.09678785926512812,
                0.22353850827717148,
                -0.6670196445970887,
                0.615218414745861,
                -0.874194103234538,
                0.634320054032989,
                0.5746364284188656,
                0.47452051354317026,
                0.8935592835273405,
                0.7377197992697917,
                -0.8532872460099343,
                -0.18687066304817357,
                0.7098867817362242,
                -0.3003774347251176,
                0.3129399620522466,
                -0.3798208000975758,
                0.26127818844340656,
                -0.5556889341937792,
                0.03118624958730587,
                -0.46960872852690927,
                -0.9124979683721894,
                0.677888464963943,
                -0.05282140013427539,
                -0.30321062510051333,
                -0.049675048817729106,
                -0.005693749061642994,
                0.17324236648773894,
                0.12941313028773904,
                -0.8362470762041616,
                -0.2263554740819873,
                0.7788763371197862,
                0.2605407839922891,
                0.9971830341951842,
                -0.8881433074773025,
                -0.12424080219317268,
                -0.8770110690393537,
                0.7461767465556863,
                -0.5496043747056296,
                0.5975094445038165,
                0.6397360291517042,
                -0.811884575435838,
                0.7442221994252047,
                -0.547134634827792,
                0.8980022063003863,
                -0.5561552362312354,
                0.7658053281557771,
                -0.4818185947285121,
                0.7051229522121711,
                -0.7898836069693247,
                0.5493676548587938,
                -0.7644857772460607,
                -0.7023815753415141,
                0.2272561188914144,
                0.1826928235509866,
                -0.005592199510704776,
                -0.8224189308576374,
                -0.8230009264419791,
                -0.8323498339542885,
                0.30699420036142433,
                -0.6592480017148181,
                -0.05870530803627583,
                0.08587053654988797,
                0.6012927822774707,
                -0.061522273841091546,
                0.19772722907258533,
                -0.5229480208470244,
                0.06146665711955479,
                -0.05609602530305091,
                -0.07255239462133145,
                -0.3410238993079513,
                -0.41635999615134667,
                0.11556302994283052,
                -0.5968017008140691,
                0.03650536902086121,
                0.013565235311894241,
                -0.15295693704530455,
                -0.1976893037546842,
                0.5317466405833824,
                -0.447833985764456,
                0.012427090207313585,
                0.08111429451085361,
                -0.21231976207919412,
                0.3100455148657997,
                -0.6916295875290546,
                0.9703730614717925,
                -0.6955466855762278,
                -0.5140485183866921,
                -0.8526278659015092,
                -0.5278965195305163,
                0.7929456819747323,
                -0.5118758676163274,
                0.41339817336453044,
                -0.12118378147538,
                -0.9105830862701791,
                -0.6481241014078838,
                -0.9234565533341172,
                -0.433531106185881,
                0.413342555711671,
                0.020447422294154416,
                0.4939164991927876,
                -0.9276813445276029,
                0.6040874261428077,
                -0.3905204717957045,
                -0.5244830444103494,
                -0.3594072057676535,
                0.62304476351619,
                0.322560018544346,
                0.4429034914089849,
                0.15479140316824958,
                0.8747260337112126,
                -0.544669419315024,
                -0.7640943032522194,
                -0.337593729299304,
                0.7653760955507756,
                -0.45572389078127407,
                -0.3672206687588341,
                -0.9301705900254522,
                0.030227590832033968,
                -0.21984853466034338,
                -0.45806710955596863,
                -0.1768267271932339,
                0.2682755986546519,
                0.9553310638085617,
                0.7019894913313862,
                0.35769251238447275,
                -0.6927930385306444,
                0.778532937997269,
                0.9241614061985917,
                0.7205495171810266,
                -0.20101964063989908,
                0.41807790446005666,
                0.7928681735847463,
                -0.5969322154284139,
                -0.9724425682669704,
                -0.7316148717569256,
                0.04366057973525517,
                0.6506021952492196,
                0.5909451467874205,
                -0.5134359297870825,
                -0.19460640251385342,
                0.4656711795673105,
                -0.05810534910210652,
                0.0412992942339272,
                -0.8719225506633159,
                -0.2927292544826535,
                0.5855754034526532,
                -0.23914321942215,
                -0.22289984450810585,
                -0.3841970057153129,
                0.5410082468488293,
                0.3190330468672482,
                0.4389762670914532,
                -0.1907161554278416,
                0.27436410974448733,
                0.14096575749151685,
                -0.8330236439746914,
                0.5815710721451655,
                -0.08050130544253686,
                -0.9088622377760998,
                0.30212058839486944,
                0.7184790548488866,
                0.5092156666839569,
                0.09498876104829312,
                -0.87845316151085,
                0.5367730993483091,
                0.3633738892913674,
                0.1652074182244052,
                0.18737529366620587,
                -0.045680963921212125,
                0.6517714884373227,
                0.992768892083675,
                -0.5800097852852242,
                -0.4063338615961065,
                0.03406818538627965,
                -0.4519323350172175,
                0.3009368848525624,
                -0.3803564111610671,
                0.3089244455606326,
                -0.9219629605868659,
                0.23544658312361988,
                -0.1500673085218609,
                0.3970700862803822,
                -0.3255771507162495,
                0.6592165360502975,
                -0.32856580397513035,
                0.8153886067752674,
                0.8261928930069287,
                -0.7469947327612875,
                -0.26511269959859207,
                0.9173306552308289,
                0.5551258556335819,
                -0.5466336456810281,
                0.426546320983463,
                -0.349885383318125,
                -0.4250868062605554,
                -0.03668058059955048,
                -0.9865114949580801,
                0.7401206119638497,
                -0.8493052869333444,
                -0.03219245887929223,
                0.3918921004011724,
                -0.8565363957809919,
                0.3877977567668063,
                0.9855582388050659,
                0.1775317896052877,
                0.9358654217495888,
                0.28649512272630595,
                0.7971753784442206,
                0.24478986637889877,
                0.3645321630707625,
                0.0326219606365179,
                -0.9052774421429622,
                -0.23839775158017773,
                0.7070448099202684,
                0.7539390939073354,
                0.4330364444446919,
                0.5224334157642132,
                0.5801319859829415,
                0.6860417116834046,
                -0.7426792838343788,
                0.4974626402824478,
                0.2411675673169864,
                -0.2893129295154069,
                -0.07599103873408919,
                0.8912821839988614,
                0.2856002642240376,
                0.8873283806663603,
                0.9047706890407814,
                0.025720876187887542,
                -0.9619769071983066,
                -0.12742176983851095,
                -0.5823870243422626,
                -0.8185133029792986,
                -0.7396240140030272,
                -0.5968287864685193,
                0.3590184875573117,
                -0.8037585931847611,
                0.6896663371891092,
                0.15619386507020971,
                0.4410312731941377,
                0.05419849932854914,
                -0.8111841742932723,
                0.5357538310511754,
                0.8158007477483715,
                0.8958606356269962,
                0.28969292495851073,
                0.24883719219306344,
                0.41829405139120945,
                -0.13017508998987037,
                -0.06512109705485458,
                0.6756147675568307,
                -0.6327124497074226,
                -0.8239535306691907,
                -0.6136981628898988,
                0.29129651155848824,
                -0.9326713476016518,
                0.6719021022654614,
                0.1786248912935262,
                0.972099342370452,
                -0.3023770224779737,
                0.21664798502654214,
                -0.15532242839938137,
                0.11523595317976354,
                0.39813468204724356,
                0.10505355759759127,
                0.5184071667112444,
                -0.2428468313267672,
                0.3012949644128302,
                0.20807350296903104,
                0.9133470346747652,
                -0.25767376332435465,
                -0.7377279986337424,
                -0.8978371405498298,
                -0.7219199322731793,
                -0.9219272508853708,
                0.9980234950771665,
                0.5677729926853314,
                0.3269099413076928,
                0.41631754553705336,
                -0.5624020982358615,
                -0.7382111566784844,
                0.09193231216256148,
                -0.1951145479432841,
                -0.5621646864163525,
                0.4782341502039853,
                -0.9038180373161184,
                -0.49483603401800436,
                0.15013625153812415,
                0.27480685490873036,
                -0.5227366925788748,
                0.8477592290601503,
                -0.5085451609960502,
                0.32194087902174373,
                -0.03700481869140859,
                0.8895895210511933,
                -0.5730055643119876,
                -0.5185976529114869,
                -0.35325731027557394,
                0.7282894001008429,
                0.6894758509888668,
                -0.43991027653213133,
                -0.5293843632235119,
                0.9517478523551244,
                -0.3377474170819611,
                -0.2513042954966912,
                -0.970179399461569,
                -0.3397239229361172,
                -0.6835313037426822,
                0.35673054184612374,
                -0.9234063773990638,
                -0.24593340197854363,
                0.618519386098962,
                0.16852593476349775,
                0.5589520510094947,
                -0.943645301248713,
                -0.35323991596383975,
                0.6551340136933765,
                -0.4384813352667174,
                0.7968963355742844,
                -0.07005913232921579,
                0.03878197308573039,
                0.6446555637031122,
                0.421395706674734,
                -0.6392771488238485,
                -0.3923492559196191,
                0.3109852277259273,
                -0.21228271220451345,
                0.08905309210021661,
                0.9577279174503535,
                -0.48399331303499327,
                -0.2214710578422393,
                -0.48218236001310044,
                -0.013377676258505167,
                -0.2697232064184375,
                0.18007022290493846,
                0.7353180282448037,
                -0.23990260494868387,
                0.8403462999688212,
                -0.9482132764292012,
                -0.8831720640338827,
                0.9169399225697572,
                -0.19414667747642222,
                0.7353473220650792,
                0.08546585733325496,
                -0.6351946273982501,
                0.7917020208163661,
                0.7322259413694152,
                -0.9800606146361961,
                -0.6467793144503512,
                0.5291222769436996,
                -0.05011974603408931,
                0.3920026586353791,
                0.1737778397154892,
                -0.628724040290678,
                0.7527255098115306,
                0.7814285847271927,
                0.6822611874352493,
                -0.4595572033243055,
                -0.1295183241039134,
                0.6399891039542802,
                0.05644948457202381,
                0.6490106180538473,
                -0.8421932569901427,
                -0.9569281926178039,
                -0.6207125892959129,
                0.33787696591479555,
                0.7783898365583224,
                0.13938480575540324,
                0.1782232658836167,
                0.8301765601291211,
                0.2562127426528431,
                0.09516318752205155,
                -0.3639701182786236,
                -0.008439936213400223,
                -0.8193709560760162,
                0.0008352543231264775,
                -0.21673791539703402,
                0.9128549862247217,
                0.02077464061825296,
                0.13648277015261479,
                0.44197726223709854,
                0.9706548945841635,
                -0.4715145721433286,
                -0.3842448989787348,
                -0.658069146637837,
                -0.7187890632631206,
                -0.6028163151828648,
                -0.9758079592025876,
                -0.17834626565610345,
                0.2676653607132218,
                0.6641811447516928,
                0.8781032189159204,
                -0.0833240221642535,
                0.8219878886928726,
                0.9211750262981164,
                0.2959633894711562,
                0.15986485367634562,
                0.6995648619251162,
